<?xml version="1.0"?>
<opencv_storage>
<stage16>
  <maxWeakCount>45</maxWeakCount>
  <stageThreshold>-7.8038740158081055e-01</stageThreshold>
  <weakClassifiers>
    <_>
      <internalNodes>
        0 -1 229091 -4.7870632261037827e-02</internalNodes>
      <leafValues>
        5.2484470605850220e-01 -3.5984847694635391e-02</leafValues></_>
    <_>
      <internalNodes>
        0 -1 33653 -7.3044206947088242e-03</internalNodes>
      <leafValues>
        2.2183117270469666e-01 -2.5959959626197815e-01</leafValues></_>
    <_>
      <internalNodes>
        0 -1 289874 1.4506094157695770e-01</internalNodes>
      <leafValues>
        -7.5831718742847443e-02 7.3544239997863770e-01</leafValues></_>
    <_>
      <internalNodes>
        0 -1 983018 8.2542523741722107e-03</internalNodes>
      <leafValues>
        -1.9737683236598969e-01 2.3491796851158142e-01</leafValues></_>
    <_>
      <internalNodes>
        0 -1 969598 1.2571192928589880e-04</internalNodes>
      <leafValues>
        1.0002864897251129e-01 -4.0968149900436401e-01</leafValues></_>
    <_>
      <internalNodes>
        0 -1 202615 -8.0459164455533028e-03</internalNodes>
      <leafValues>
        4.0236112475395203e-01 -9.1822475194931030e-02</leafValues></_>
    <_>
      <internalNodes>
        0 -1 166072 1.4448885340243578e-03</internalNodes>
      <leafValues>
        -1.2829847633838654e-01 2.7317354083061218e-01</leafValues></_>
    <_>
      <internalNodes>
        0 -1 356183 9.7985573112964630e-02</internalNodes>
      <leafValues>
        4.5516047626733780e-02 -6.5180081129074097e-01</leafValues></_>
    <_>
      <internalNodes>
        0 -1 661675 -2.4833325296640396e-03</internalNodes>
      <leafValues>
        2.4764361977577209e-01 -1.4871296286582947e-01</leafValues></_>
    <_>
      <internalNodes>
        0 -1 473988 -7.3027998208999634e-02</internalNodes>
      <leafValues>
        -5.8929777145385742e-01 7.4866138398647308e-02</leafValues></_>
    <_>
      <internalNodes>
        0 -1 835701 -1.4785705134272575e-02</internalNodes>
      <leafValues>
        4.2992839217185974e-01 -1.0198131948709488e-01</leafValues></_>
    <_>
      <internalNodes>
        0 -1 420366 -1.0624385438859463e-02</internalNodes>
      <leafValues>
        5.7056879997253418e-01 -4.7519858926534653e-02</leafValues></_>
    <_>
      <internalNodes>
        0 -1 993345 2.2383949253708124e-03</internalNodes>
      <leafValues>
        5.3455375134944916e-02 -6.3986825942993164e-01</leafValues></_>
    <_>
      <internalNodes>
        0 -1 454700 4.2107598856091499e-03</internalNodes>
      <leafValues>
        -7.3843114078044891e-02 5.5721944570541382e-01</leafValues></_>
    <_>
      <internalNodes>
        0 -1 360536 -6.2476601451635361e-03</internalNodes>
      <leafValues>
        3.8638561964035034e-01 -7.9944163560867310e-02</leafValues></_>
    <_>
      <internalNodes>
        0 -1 280515 -1.7491361126303673e-02</internalNodes>
      <leafValues>
        5.7285493612289429e-01 -5.8096665889024734e-02</leafValues></_>
    <_>
      <internalNodes>
        0 -1 103592 -8.0656498670578003e-02</internalNodes>
      <leafValues>
        -6.6979444026947021e-01 6.1959475278854370e-02</leafValues></_>
    <_>
      <internalNodes>
        0 -1 767716 -8.5582456085830927e-04</internalNodes>
      <leafValues>
        -3.2204532623291016e-01 9.6881553530693054e-02</leafValues></_>
    <_>
      <internalNodes>
        0 -1 463347 2.1368278248701245e-04</internalNodes>
      <leafValues>
        -9.3441501259803772e-02 3.3394202589988708e-01</leafValues></_>
    <_>
      <internalNodes>
        0 -1 748092 -8.9389290660619736e-03</internalNodes>
      <leafValues>
        -5.0960385799407959e-01 6.8757064640522003e-02</leafValues></_>
    <_>
      <internalNodes>
        0 -1 536896 -2.8339223936200142e-03</internalNodes>
      <leafValues>
        4.0239036083221436e-01 -8.7978839874267578e-02</leafValues></_>
    <_>
      <internalNodes>
        0 -1 233945 7.5462454697117209e-04</internalNodes>
      <leafValues>
        -1.3331848382949829e-01 2.3158462345600128e-01</leafValues></_>
    <_>
      <internalNodes>
        0 -1 17592 -2.5563770905137062e-03</internalNodes>
      <leafValues>
        2.2063004970550537e-01 -1.5538732707500458e-01</leafValues></_>
    <_>
      <internalNodes>
        0 -1 85592 7.4898332357406616e-02</internalNodes>
      <leafValues>
        -9.2378996312618256e-02 4.2843857407569885e-01</leafValues></_>
    <_>
      <internalNodes>
        0 -1 429818 1.6465932130813599e-01</internalNodes>
      <leafValues>
        -3.4770429134368896e-02 8.0245238542556763e-01</leafValues></_>
    <_>
      <internalNodes>
        0 -1 524952 5.9949057176709175e-03</internalNodes>
      <leafValues>
        -5.6841298937797546e-02 4.8503756523132324e-01</leafValues></_>
    <_>
      <internalNodes>
        0 -1 800109 3.8807431701570749e-03</internalNodes>
      <leafValues>
        -2.7866184711456299e-01 1.3184005022048950e-01</leafValues></_>
    <_>
      <internalNodes>
        0 -1 78149 -5.7849675416946411e-02</internalNodes>
      <leafValues>
        4.6556702256202698e-01 -7.9174339771270752e-02</leafValues></_>
    <_>
      <internalNodes>
        0 -1 808160 1.1457718210294843e-04</internalNodes>
      <leafValues>
        1.0928912460803986e-01 -3.1907534599304199e-01</leafValues></_>
    <_>
      <internalNodes>
        0 -1 67542 3.1775063835084438e-03</internalNodes>
      <leafValues>
        -6.3218854367733002e-02 5.7228934764862061e-01</leafValues></_>
    <_>
      <internalNodes>
        0 -1 978384 -4.4058412313461304e-03</internalNodes>
      <leafValues>
        2.8065446019172668e-01 -1.0878836363554001e-01</leafValues></_>
    <_>
      <internalNodes>
        0 -1 990029 -1.5994298737496138e-03</internalNodes>
      <leafValues>
        3.8192850351333618e-01 -9.3299113214015961e-02</leafValues></_>
    <_>
      <internalNodes>
        0 -1 504593 -5.8058002032339573e-03</internalNodes>
      <leafValues>
        -3.8339400291442871e-01 9.3354538083076477e-02</leafValues></_>
    <_>
      <internalNodes>
        0 -1 453002 3.8460369687527418e-03</internalNodes>
      <leafValues>
        6.7285656929016113e-02 -4.4483575224876404e-01</leafValues></_>
    <_>
      <internalNodes>
        0 -1 976379 -8.4458291530609131e-04</internalNodes>
      <leafValues>
        2.3124222457408905e-01 -1.4168371260166168e-01</leafValues></_>
    <_>
      <internalNodes>
        0 -1 902452 1.2338710948824883e-03</internalNodes>
      <leafValues>
        -1.0588588565587997e-01 3.1125959753990173e-01</leafValues></_>
    <_>
      <internalNodes>
        0 -1 661252 -6.3203893660102040e-05</internalNodes>
      <leafValues>
        -2.4326583743095398e-01 1.5098753571510315e-01</leafValues></_>
    <_>
      <internalNodes>
        0 -1 915244 -4.4417227618396282e-03</internalNodes>
      <leafValues>
        3.7014204263687134e-01 -9.7385667264461517e-02</leafValues></_>
    <_>
      <internalNodes>
        0 -1 33540 1.2407384929247200e-04</internalNodes>
      <leafValues>
        1.0763446986675262e-01 -3.2809650897979736e-01</leafValues></_>
    <_>
      <internalNodes>
        0 -1 17652 -3.8977561052888632e-03</internalNodes>
      <leafValues>
        3.4079316258430481e-01 -1.0427448153495789e-01</leafValues></_>
    <_>
      <internalNodes>
        0 -1 8665 7.0686293765902519e-03</internalNodes>
      <leafValues>
        -1.2840594351291656e-01 2.7247497439384460e-01</leafValues></_>
    <_>
      <internalNodes>
        0 -1 3258 -4.7036656178534031e-04</internalNodes>
      <leafValues>
        -2.2454603016376495e-01 1.7182591557502747e-01</leafValues></_>
    <_>
      <internalNodes>
        0 -1 5900 -1.0944405570626259e-02</internalNodes>
      <leafValues>
        2.4745911359786987e-01 -1.4964787662029266e-01</leafValues></_>
    <_>
      <internalNodes>
        0 -1 392915 7.5315870344638824e-04</internalNodes>
      <leafValues>
        5.3426805883646011e-02 -7.0182090997695923e-01</leafValues></_>
    <_>
      <internalNodes>
        0 -1 955962 -3.6104541504755616e-04</internalNodes>
      <leafValues>
        2.2683210670948029e-01 -1.4392900466918945e-01</leafValues></_></weakClassifiers></stage16>
</opencv_storage>
