<?xml version="1.0"?>
<opencv_storage>
<stage13>
  <maxWeakCount>37</maxWeakCount>
  <stageThreshold>-7.9813385009765625e-01</stageThreshold>
  <weakClassifiers>
    <_>
      <internalNodes>
        0 -1 451515 4.9480344168841839e-03</internalNodes>
      <leafValues>
        -5.2319843322038651e-02 5.1382821798324585e-01</leafValues></_>
    <_>
      <internalNodes>
        0 -1 325797 -5.9342072345316410e-03</internalNodes>
      <leafValues>
        7.6968795061111450e-01 -5.9100423008203506e-02</leafValues></_>
    <_>
      <internalNodes>
        0 -1 387203 -9.5643475651741028e-03</internalNodes>
      <leafValues>
        8.4773272275924683e-01 -7.9111479222774506e-02</leafValues></_>
    <_>
      <internalNodes>
        0 -1 508591 -1.1407495476305485e-03</internalNodes>
      <leafValues>
        3.0428919196128845e-01 -1.6694046556949615e-01</leafValues></_>
    <_>
      <internalNodes>
        0 -1 961486 2.3204058408737183e-02</internalNodes>
      <leafValues>
        -1.2431124597787857e-01 3.7071219086647034e-01</leafValues></_>
    <_>
      <internalNodes>
        0 -1 770003 -1.9871427866746671e-05</internalNodes>
      <leafValues>
        -2.8769192099571228e-01 1.5213568508625031e-01</leafValues></_>
    <_>
      <internalNodes>
        0 -1 928322 3.6510475911200047e-04</internalNodes>
      <leafValues>
        -1.0991587489843369e-01 4.0562376379966736e-01</leafValues></_>
    <_>
      <internalNodes>
        0 -1 136256 -1.4440148370340466e-03</internalNodes>
      <leafValues>
        -6.8559670448303223e-01 6.9823756814002991e-02</leafValues></_>
    <_>
      <internalNodes>
        0 -1 727007 -2.9116417281329632e-03</internalNodes>
      <leafValues>
        4.1340771317481995e-01 -1.0368838161230087e-01</leafValues></_>
    <_>
      <internalNodes>
        0 -1 67952 -2.5992914743255824e-05</internalNodes>
      <leafValues>
        1.7176172137260437e-01 -2.3103418946266174e-01</leafValues></_>
    <_>
      <internalNodes>
        0 -1 833782 -6.2624990940093994e-02</internalNodes>
      <leafValues>
        -8.7213641405105591e-01 3.6171551793813705e-02</leafValues></_>
    <_>
      <internalNodes>
        0 -1 331049 8.0407969653606415e-03</internalNodes>
      <leafValues>
        -8.4492452442646027e-02 4.8297673463821411e-01</leafValues></_>
    <_>
      <internalNodes>
        0 -1 23172 -4.7033466398715973e-03</internalNodes>
      <leafValues>
        5.3844928741455078e-01 -6.1099611222743988e-02</leafValues></_>
    <_>
      <internalNodes>
        0 -1 121792 -4.8094750382006168e-03</internalNodes>
      <leafValues>
        7.7299445867538452e-01 -3.7159599363803864e-02</leafValues></_>
    <_>
      <internalNodes>
        0 -1 925530 -1.7561070621013641e-02</internalNodes>
      <leafValues>
        4.3468597531318665e-01 -7.7842593193054199e-02</leafValues></_>
    <_>
      <internalNodes>
        0 -1 869534 1.8284300342202187e-02</internalNodes>
      <leafValues>
        -1.7932291328907013e-01 2.1508951485157013e-01</leafValues></_>
    <_>
      <internalNodes>
        0 -1 480937 -7.3635145090520382e-03</internalNodes>
      <leafValues>
        4.4693127274513245e-01 -8.5537768900394440e-02</leafValues></_>
    <_>
      <internalNodes>
        0 -1 170248 -4.3546617962419987e-04</internalNodes>
      <leafValues>
        -4.5722302794456482e-01 9.5410645008087158e-02</leafValues></_>
    <_>
      <internalNodes>
        0 -1 842956 -1.7361780919600278e-04</internalNodes>
      <leafValues>
        -2.9571139812469482e-01 1.1978399008512497e-01</leafValues></_>
    <_>
      <internalNodes>
        0 -1 725138 -5.3668834269046783e-02</internalNodes>
      <leafValues>
        -5.2973210811614990e-01 7.1241080760955811e-02</leafValues></_>
    <_>
      <internalNodes>
        0 -1 135140 4.1857389733195305e-03</internalNodes>
      <leafValues>
        -1.2222469598054886e-01 3.2369047403335571e-01</leafValues></_>
    <_>
      <internalNodes>
        0 -1 915243 -3.1807050108909607e-03</internalNodes>
      <leafValues>
        5.2493053674697876e-01 -6.4647555351257324e-02</leafValues></_>
    <_>
      <internalNodes>
        0 -1 783021 -4.7512566670775414e-03</internalNodes>
      <leafValues>
        2.9119715094566345e-01 -1.1453132331371307e-01</leafValues></_>
    <_>
      <internalNodes>
        0 -1 804236 -3.1755369855090976e-04</internalNodes>
      <leafValues>
        -2.8236302733421326e-01 1.4048908650875092e-01</leafValues></_>
    <_>
      <internalNodes>
        0 -1 806058 -5.5612076539546251e-04</internalNodes>
      <leafValues>
        -5.2580916881561279e-01 6.8294644355773926e-02</leafValues></_>
    <_>
      <internalNodes>
        0 -1 13122 1.8312367610633373e-03</internalNodes>
      <leafValues>
        -7.8868590295314789e-02 5.3145152330398560e-01</leafValues></_>
    <_>
      <internalNodes>
        0 -1 135829 2.6035099290311337e-03</internalNodes>
      <leafValues>
        6.6649116575717926e-02 -5.8433878421783447e-01</leafValues></_>
    <_>
      <internalNodes>
        0 -1 63297 -8.7474212050437927e-03</internalNodes>
      <leafValues>
        1.7263479530811310e-01 -2.1225123107433319e-01</leafValues></_>
    <_>
      <internalNodes>
        0 -1 504530 3.0241586500778794e-04</internalNodes>
      <leafValues>
        -1.6479678452014923e-01 2.2025209665298462e-01</leafValues></_>
    <_>
      <internalNodes>
        0 -1 355178 -7.3638767004013062e-02</internalNodes>
      <leafValues>
        -9.0441536903381348e-01 4.5826733112335205e-02</leafValues></_>
    <_>
      <internalNodes>
        0 -1 523113 1.3327950146049261e-03</internalNodes>
      <leafValues>
        5.2162710577249527e-02 -5.8800768852233887e-01</leafValues></_>
    <_>
      <internalNodes>
        0 -1 937428 -9.0297027782071382e-05</internalNodes>
      <leafValues>
        -2.7522081136703491e-01 1.2767398357391357e-01</leafValues></_>
    <_>
      <internalNodes>
        0 -1 41984 1.7381904646754265e-02</internalNodes>
      <leafValues>
        -1.2144233286380768e-01 3.1157219409942627e-01</leafValues></_>
    <_>
      <internalNodes>
        0 -1 340927 -6.4476206898689270e-02</internalNodes>
      <leafValues>
        4.3660336732864380e-01 -9.3095622956752777e-02</leafValues></_>
    <_>
      <internalNodes>
        0 -1 423160 2.6961327530443668e-03</internalNodes>
      <leafValues>
        7.6601251959800720e-02 -5.4291909933090210e-01</leafValues></_>
    <_>
      <internalNodes>
        0 -1 169614 -3.9251036942005157e-03</internalNodes>
      <leafValues>
        5.6353241205215454e-01 -8.0069124698638916e-02</leafValues></_>
    <_>
      <internalNodes>
        0 -1 880490 7.9052988439798355e-04</internalNodes>
      <leafValues>
        -1.3200293481349945e-01 3.0788943171501160e-01</leafValues></_></weakClassifiers></stage13>
</opencv_storage>
