<?xml version="1.0"?>
<opencv_storage>
<stage15>
  <maxWeakCount>38</maxWeakCount>
  <stageThreshold>-7.5752657651901245e-01</stageThreshold>
  <weakClassifiers>
    <_>
      <internalNodes>
        0 -1 135393 -2.8351754881441593e-03</internalNodes>
      <leafValues>
        4.7461929917335510e-01 -8.1140354275703430e-02</leafValues></_>
    <_>
      <internalNodes>
        0 -1 473482 -2.6687148958444595e-02</internalNodes>
      <leafValues>
        5.8249413967132568e-01 -1.0869712382555008e-01</leafValues></_>
    <_>
      <internalNodes>
        0 -1 856626 -3.6857638508081436e-02</internalNodes>
      <leafValues>
        3.0246719717979431e-01 -1.5971498191356659e-01</leafValues></_>
    <_>
      <internalNodes>
        0 -1 24863 -4.1607939638197422e-03</internalNodes>
      <leafValues>
        2.0064908266067505e-01 -1.9584114849567413e-01</leafValues></_>
    <_>
      <internalNodes>
        0 -1 390039 2.7047866024076939e-03</internalNodes>
      <leafValues>
        -5.4641615599393845e-02 6.1454963684082031e-01</leafValues></_>
    <_>
      <internalNodes>
        0 -1 988793 3.7298331153579056e-04</internalNodes>
      <leafValues>
        5.4370131343603134e-02 -6.7870730161666870e-01</leafValues></_>
    <_>
      <internalNodes>
        0 -1 460904 -2.9527585953474045e-02</internalNodes>
      <leafValues>
        -8.7404298782348633e-01 3.9442166686058044e-02</leafValues></_>
    <_>
      <internalNodes>
        0 -1 640398 -1.4135332778096199e-02</internalNodes>
      <leafValues>
        5.8732372522354126e-01 -6.5499499440193176e-02</leafValues></_>
    <_>
      <internalNodes>
        0 -1 520883 1.6092857345938683e-02</internalNodes>
      <leafValues>
        -9.3356847763061523e-02 3.3580660820007324e-01</leafValues></_>
    <_>
      <internalNodes>
        0 -1 916507 -6.3376538455486298e-03</internalNodes>
      <leafValues>
        4.4728788733482361e-01 -7.0182926952838898e-02</leafValues></_>
    <_>
      <internalNodes>
        0 -1 331946 1.9751467334572226e-04</internalNodes>
      <leafValues>
        6.0331553220748901e-02 -4.9667736887931824e-01</leafValues></_>
    <_>
      <internalNodes>
        0 -1 159350 1.3523126253858209e-03</internalNodes>
      <leafValues>
        -1.2696401774883270e-01 3.1121349334716797e-01</leafValues></_>
    <_>
      <internalNodes>
        0 -1 135846 6.7116962745785713e-03</internalNodes>
      <leafValues>
        4.0998138487339020e-02 -7.7108293771743774e-01</leafValues></_>
    <_>
      <internalNodes>
        0 -1 703240 -1.1908536776900291e-02</internalNodes>
      <leafValues>
        2.4344035983085632e-01 -1.4288486540317535e-01</leafValues></_>
    <_>
      <internalNodes>
        0 -1 362823 2.0410880097188056e-05</internalNodes>
      <leafValues>
        1.3237279653549194e-01 -2.7227091789245605e-01</leafValues></_>
    <_>
      <internalNodes>
        0 -1 519629 -1.0183418635278940e-03</internalNodes>
      <leafValues>
        2.6795181632041931e-01 -1.3341853022575378e-01</leafValues></_>
    <_>
      <internalNodes>
        0 -1 988514 -9.8095764406025410e-04</internalNodes>
      <leafValues>
        3.6550718545913696e-01 -9.1245472431182861e-02</leafValues></_>
    <_>
      <internalNodes>
        0 -1 32836 -2.1069878712296486e-03</internalNodes>
      <leafValues>
        -5.2757579088211060e-01 6.6497631371021271e-02</leafValues></_>
    <_>
      <internalNodes>
        0 -1 983592 4.3650063162203878e-05</internalNodes>
      <leafValues>
        1.4324229955673218e-01 -2.3626102507114410e-01</leafValues></_>
    <_>
      <internalNodes>
        0 -1 67452 -1.5792425256222486e-04</internalNodes>
      <leafValues>
        -2.7747577428817749e-01 1.3513886928558350e-01</leafValues></_>
    <_>
      <internalNodes>
        0 -1 611269 -1.1635362898232415e-04</internalNodes>
      <leafValues>
        -3.6375328898429871e-01 1.0364450514316559e-01</leafValues></_>
    <_>
      <internalNodes>
        0 -1 930150 -4.1368133388459682e-03</internalNodes>
      <leafValues>
        5.3144961595535278e-01 -7.1516759693622589e-02</leafValues></_>
    <_>
      <internalNodes>
        0 -1 391415 -5.6398743763566017e-03</internalNodes>
      <leafValues>
        3.6521968245506287e-01 -9.8710961639881134e-02</leafValues></_>
    <_>
      <internalNodes>
        0 -1 451097 -4.5542019506683573e-05</internalNodes>
      <leafValues>
        1.8520468473434448e-01 -2.1080642938613892e-01</leafValues></_>
    <_>
      <internalNodes>
        0 -1 860917 -3.6183334887027740e-03</internalNodes>
      <leafValues>
        2.8314098715782166e-01 -1.3185176253318787e-01</leafValues></_>
    <_>
      <internalNodes>
        0 -1 652531 -1.3325172476470470e-02</internalNodes>
      <leafValues>
        -6.2205421924591064e-01 6.2471497803926468e-02</leafValues></_>
    <_>
      <internalNodes>
        0 -1 831296 -6.1476066708564758e-02</internalNodes>
      <leafValues>
        -7.0960265398025513e-01 3.9799615740776062e-02</leafValues></_>
    <_>
      <internalNodes>
        0 -1 827774 -2.0456824451684952e-02</internalNodes>
      <leafValues>
        -7.2940760850906372e-01 4.0473666042089462e-02</leafValues></_>
    <_>
      <internalNodes>
        0 -1 109658 -2.8618788346648216e-02</internalNodes>
      <leafValues>
        3.7726780772209167e-01 -9.6912391483783722e-02</leafValues></_>
    <_>
      <internalNodes>
        0 -1 931451 8.5440829396247864e-02</internalNodes>
      <leafValues>
        -5.4823510348796844e-02 6.7178755998611450e-01</leafValues></_>
    <_>
      <internalNodes>
        0 -1 109815 -5.5696256458759308e-02</internalNodes>
      <leafValues>
        4.9531686305999756e-01 -6.7686893045902252e-02</leafValues></_>
    <_>
      <internalNodes>
        0 -1 662108 -1.2426564935594797e-03</internalNodes>
      <leafValues>
        -7.0619785785675049e-01 5.5631853640079498e-02</leafValues></_>
    <_>
      <internalNodes>
        0 -1 167427 -1.2768002226948738e-02</internalNodes>
      <leafValues>
        -4.6205791831016541e-01 6.9020591676235199e-02</leafValues></_>
    <_>
      <internalNodes>
        0 -1 608557 -2.1140765398740768e-02</internalNodes>
      <leafValues>
        2.2234499454498291e-01 -1.6687405109405518e-01</leafValues></_>
    <_>
      <internalNodes>
        0 -1 940699 1.3080476783216000e-03</internalNodes>
      <leafValues>
        4.4021070003509521e-02 -7.3777335882186890e-01</leafValues></_>
    <_>
      <internalNodes>
        0 -1 264204 9.6485973335802555e-04</internalNodes>
      <leafValues>
        -1.4697572588920593e-01 2.7876591682434082e-01</leafValues></_>
    <_>
      <internalNodes>
        0 -1 264409 1.3482084032148123e-03</internalNodes>
      <leafValues>
        -1.1900936812162399e-01 3.5087475180625916e-01</leafValues></_>
    <_>
      <internalNodes>
        0 -1 417909 1.1365418322384357e-03</internalNodes>
      <leafValues>
        -1.2806576490402222e-01 2.7053707838058472e-01</leafValues></_></weakClassifiers></stage15>
</opencv_storage>
